<?xml version="1.0"?>
<opencv_storage>
<stage19>
  <maxWeakCount>7</maxWeakCount>
  <stageThreshold>-1.6882597208023071e+00</stageThreshold>
  <weakClassifiers>
    <_>
      <internalNodes>
        0 -1 4336 -2097153 -540555233 -804663009 -11022001 -850002433
        -88227192 -63328769 -4357</internalNodes>
      <leafValues>
        -8.0586743354797363e-01 6.4102566242218018e-01</leafValues></_>
    <_>
      <internalNodes>
        0 -1 2145 -1332124253 1263162511 -1761487433 -409231079
        2139783159 986825417 -1580554633 -611666952</internalNodes>
      <leafValues>
        -5.7137364149093628e-01 1.0561250150203705e-01</leafValues></_>
    <_>
      <internalNodes>
        0 -1 4868 -807029110 639163204 569483144 -1628971529 969629152
        -1576707031 -2108962767 968169948</internalNodes>
      <leafValues>
        -5.8879578113555908e-01 2.3829030990600586e-01</leafValues></_>
    <_>
      <internalNodes>
        0 -1 1004 -1904695922 886452806 1226623452 717282490 492727442
        648839179 -526156319 -1256350612</internalNodes>
      <leafValues>
        -5.7193243503570557e-01 2.6724651455879211e-01</leafValues></_>
    <_>
      <internalNodes>
        0 -1 4926 -1479035358 921113326 -401347814 2097568732
        -1340446767 1344119450 -1172881143 307444345</internalNodes>
      <leafValues>
        -6.2162113189697266e-01 2.7425444126129150e-01</leafValues></_>
    <_>
      <internalNodes>
        0 -1 4530 970268292 -511523682 -1877478114 -1865149494
        1934253746 -1451192312 1988383128 1529838068</internalNodes>
      <leafValues>
        -6.2248808145523071e-01 2.6830884814262390e-01</leafValues></_>
    <_>
      <internalNodes>
        0 -1 497 952489237 -1209396274 -785981998 -1277241302 542015537
        -367704919 -1815434320 -225138067</internalNodes>
      <leafValues>
        -4.6324318647384644e-01 3.7732455134391785e-01</leafValues></_></weakClassifiers></stage19>
</opencv_storage>
