<?xml version="1.0"?>
<opencv_storage>
<stage3>
  <maxWeakCount>7</maxWeakCount>
  <stageThreshold>-1.4059638977050781e+00</stageThreshold>
  <weakClassifiers>
    <_>
      <internalNodes>
        0 -1 2435 -1 -549594925 1930270681 -1050945 -1311301 -75474433
        -618399269 -67109889</internalNodes>
      <leafValues>
        -8.1878948211669922e-01 4.6728972345590591e-02</leafValues></_>
    <_>
      <internalNodes>
        0 -1 1065 -824293850 2121165338 -155219046 -63282486 -1748284571
        -696292427 -663849754 -151066957</internalNodes>
      <leafValues>
        -6.9367355108261108e-01 4.1952874511480331e-02</leafValues></_>
    <_>
      <internalNodes>
        0 -1 931 1337392672 385803189 324448685 -1393842218 1876506607
        1663170612 -911007108 556776063</internalNodes>
      <leafValues>
        -6.7872172594070435e-01 2.2693508863449097e-01</leafValues></_>
    <_>
      <internalNodes>
        0 -1 7750 1811644196 784249215 -36439371 -1397818434 -678239680
        1641934126 -269357296 1834941552</internalNodes>
      <leafValues>
        -7.7103966474533081e-01 2.1656475961208344e-01</leafValues></_>
    <_>
      <internalNodes>
        0 -1 3352 -1410996736 93893103 -331143682 -226781317 651908897
        1603140063 -346917568 907522183</internalNodes>
      <leafValues>
        -6.9242578744888306e-01 2.5217363238334656e-01</leafValues></_>
    <_>
      <internalNodes>
        0 -1 1842 1751854652 1851440031 -697003906 1951432853 1861906277
        1505675291 1792166140 -329220314</internalNodes>
      <leafValues>
        -6.5326362848281860e-01 2.6784515380859375e-01</leafValues></_>
    <_>
      <internalNodes>
        0 -1 389 -383893006 450324624 -1936029779 1234764111 -238855476
        1401618603 -1111188941 -830522966</internalNodes>
      <leafValues>
        -5.2229499816894531e-01 3.5620561242103577e-01</leafValues></_></weakClassifiers></stage3>
</opencv_storage>
