<?xml version="1.0"?>
<opencv_storage>
<stage8>
  <maxWeakCount>6</maxWeakCount>
  <stageThreshold>-1.4618372917175293e+00</stageThreshold>
  <weakClassifiers>
    <_>
      <internalNodes>
        0 -1 1598 -1 -8526369 -408718981 -6587682 -538510353 -641816434
        -50861137 -302017537</internalNodes>
      <leafValues>
        -8.1933557987213135e-01 -4.1322313249111176e-02</leafValues></_>
    <_>
      <internalNodes>
        0 -1 2330 1541391040 2096978364 -830797027 -406074245 952301023
        728866450 -1249154390 -1671044513</internalNodes>
      <leafValues>
        -6.1281937360763550e-01 9.8997361958026886e-02</leafValues></_>
    <_>
      <internalNodes>
        0 -1 7980 -1084765181 1000577788 -575043130 -1106773028
        -1227638204 439700968 -35688236 388780891</internalNodes>
      <leafValues>
        -6.2186884880065918e-01 2.1857044100761414e-01</leafValues></_>
    <_>
      <internalNodes>
        0 -1 3754 523583093 1657351051 -2054564418 602733214 835796823
        -557327767 -571851543 -1821343753</internalNodes>
      <leafValues>
        -5.5226093530654907e-01 2.8454509377479553e-01</leafValues></_>
    <_>
      <internalNodes>
        0 -1 3248 -1692658124 916109379 -209073675 1738971514 608982842
        -1551219839 1596652384 1635207799</internalNodes>
      <leafValues>
        -6.3349902629852295e-01 2.9250726103782654e-01</leafValues></_>
    <_>
      <internalNodes>
        0 -1 8141 1879015715 1809179111 -1291812626 -1504164989
        -643859615 -222762310 -71819724 -114945243</internalNodes>
      <leafValues>
        -6.1111557483673096e-01 2.6479989290237427e-01</leafValues></_></weakClassifiers></stage8>
</opencv_storage>
