<?xml version="1.0"?>
<opencv_storage>
<stage11>
  <maxWeakCount>7</maxWeakCount>
  <stageThreshold>-1.8843977451324463e+00</stageThreshold>
  <weakClassifiers>
    <_>
      <internalNodes>
        0 -1 2353 -37557829 -640354841 -1336155687 -1275139198
        -293283076 -226892631 -1675862 -25189410</internalNodes>
      <leafValues>
        -8.5708171129226685e-01 -4.2548596858978271e-01</leafValues></_>
    <_>
      <internalNodes>
        0 -1 842 -1808074278 -725900428 -191898129 -639792648
        -2097215329 -390336585 -626111570 -918070241</internalNodes>
      <leafValues>
        -5.9758204221725464e-01 6.7267216742038727e-02</leafValues></_>
    <_>
      <internalNodes>
        0 -1 8460 377248352 703775676 1505994643 -1232462894 -537480588
        2109985432 2011158133 1725039948</internalNodes>
      <leafValues>
        -8.0803471803665161e-01 1.4901916682720184e-01</leafValues></_>
    <_>
      <internalNodes>
        0 -1 3802 -21551182 406025081 1128268231 -1915219004 285478755
        -54523237 1216555336 1440505781</internalNodes>
      <leafValues>
        -6.0839742422103882e-01 2.5884330272674561e-01</leafValues></_>
    <_>
      <internalNodes>
        0 -1 1397 1072662690 -1868224531 940957366 -96443409 715417258
        -1691850183 -1215567208 83318261</internalNodes>
      <leafValues>
        -5.8487737178802490e-01 2.3555611073970795e-01</leafValues></_>
    <_>
      <internalNodes>
        0 -1 2269 -339978744 777704790 -971066621 -2021212849 1904431734
        66389130 2061447288 912751167</internalNodes>
      <leafValues>
        -6.9984960556030273e-01 2.2660997509956360e-01</leafValues></_>
    <_>
      <internalNodes>
        0 -1 4372 -1758033064 987035293 -45037314 -278175737 2128034000
        50496169 -1287005975 -167288262</internalNodes>
      <leafValues>
        -4.7932901978492737e-01 3.3348146080970764e-01</leafValues></_></weakClassifiers></stage11>
</opencv_storage>
