<?xml version="1.0"?>
<opencv_storage>
<stage14>
  <maxWeakCount>7</maxWeakCount>
  <stageThreshold>-1.4762302637100220e+00</stageThreshold>
  <weakClassifiers>
    <_>
      <internalNodes>
        0 -1 2088 -2097153 -102774081 -684853761 -137374753 -788201801
        -87053654 -597427457 -2065</internalNodes>
      <leafValues>
        -8.1656146049499512e-01 -9.3457940965890884e-03</leafValues></_>
    <_>
      <internalNodes>
        0 -1 4537 -685511490 920715309 1263040823 987659557 -1429489710
        1668278667 1765637026 -1518438530</internalNodes>
      <leafValues>
        -6.5029448270797729e-01 2.8938975185155869e-02</leafValues></_>
    <_>
      <internalNodes>
        0 -1 7957 -1495355535 -1753050548 -1987445425 776459614
        1801288220 1214503394 -264143819 1089761468</internalNodes>
      <leafValues>
        -7.1189528703689575e-01 1.7618617415428162e-01</leafValues></_>
    <_>
      <internalNodes>
        0 -1 3438 -1639701728 -827403788 -766274123 -1346083878
        219762168 1531959914 -1941345282 177656612</internalNodes>
      <leafValues>
        -6.7075967788696289e-01 2.5070124864578247e-01</leafValues></_>
    <_>
      <internalNodes>
        0 -1 3946 -304369120 684644698 -513421166 1055192012 -1287545787
        1724082771 -423920896 1643494316</internalNodes>
      <leafValues>
        -7.5234228372573853e-01 1.6939017176628113e-01</leafValues></_>
    <_>
      <internalNodes>
        0 -1 2389 -650066744 -162651715 1670506834 1272249060 740954847
        -1734721439 -1275507621 881775411</internalNodes>
      <leafValues>
        -5.2455741167068481e-01 3.1691089272499084e-01</leafValues></_>
    <_>
      <internalNodes>
        0 -1 2366 1049523026 1291376582 1076995995 475616095 -98814639
        178934936 -465478790 1755093878</internalNodes>
      <leafValues>
        -6.3309502601623535e-01 2.4139717221260071e-01</leafValues></_></weakClassifiers></stage14>
</opencv_storage>
