<?xml version="1.0"?>
<opencv_storage>
<stage17>
  <maxWeakCount>7</maxWeakCount>
  <stageThreshold>-1.5285578966140747e+00</stageThreshold>
  <weakClassifiers>
    <_>
      <internalNodes>
        0 -1 5355 -2099273 -2231405 -237706753 -8938829 -1722877185
        -831991627 -1829839921 -6297601</internalNodes>
      <leafValues>
        -8.2434982061386108e-01 -8.8435374200344086e-02</leafValues></_>
    <_>
      <internalNodes>
        0 -1 4433 -1901162982 377799677 -179070276 611763677 -1436064803
        457919300 362625653 105137110</internalNodes>
      <leafValues>
        -8.4101635217666626e-01 -1.0069173574447632e-01</leafValues></_>
    <_>
      <internalNodes>
        0 -1 2584 -1342824170 1181343572 1498493406 -83991268
        -1140969611 -1420093055 516717168 214597074</internalNodes>
      <leafValues>
        -7.2025907039642334e-01 1.4439052343368530e-01</leafValues></_>
    <_>
      <internalNodes>
        0 -1 6028 617027936 144304370 469887326 1627058506 -1613010057
        -450539274 -171738320 1093293040</internalNodes>
      <leafValues>
        -8.2517147064208984e-01 1.6204968094825745e-01</leafValues></_>
    <_>
      <internalNodes>
        0 -1 1543 -687233484 -591007394 63363408 -934905709 1900263085
        1238166461 122963722 -351498070</internalNodes>
      <leafValues>
        -4.5629799365997314e-01 3.2339283823966980e-01</leafValues></_>
    <_>
      <internalNodes>
        0 -1 4120 -291689214 -1388001334 1413184022 -25796092
        -1089885494 -349901935 562802226 484512184</internalNodes>
      <leafValues>
        -6.2734514474868774e-01 2.4561832845211029e-01</leafValues></_>
    <_>
      <internalNodes>
        0 -1 3504 -985909804 83090940 -334865439 595121681 -1969131479
        1938383035 478425293 720304019</internalNodes>
      <leafValues>
        -6.0600423812866211e-01 2.6658612489700317e-01</leafValues></_></weakClassifiers></stage17>
</opencv_storage>
