<?xml version="1.0"?>
<opencv_storage>
<stage5>
  <maxWeakCount>6</maxWeakCount>
  <stageThreshold>-1.7199686765670776e+00</stageThreshold>
  <weakClassifiers>
    <_>
      <internalNodes>
        0 -1 9 -268959753 -70061961 -1953371427 -11562146 -861106177
        -1113883751 -17068609 -3681</internalNodes>
      <leafValues>
        -8.3522063493728638e-01 -2.5523012876510620e-01</leafValues></_>
    <_>
      <internalNodes>
        0 -1 128 1225673648 1021075098 -50903296 -1225796721 1665059753
        534457931 512053867 1509412862</internalNodes>
      <leafValues>
        -7.4152266979217529e-01 -2.2163858637213707e-02</leafValues></_>
    <_>
      <internalNodes>
        0 -1 5699 805184044 -1350735918 -1225198402 -1360855082
        -12718783 120577595 -1142004236 108023029</internalNodes>
      <leafValues>
        -9.0274620056152344e-01 1.2615041434764862e-01</leafValues></_>
    <_>
      <internalNodes>
        0 -1 75 922976388 -1242413166 -1308234795 1936683346 1191088124
        -1903771368 -100071046 2120824446</internalNodes>
      <leafValues>
        -6.0138291120529175e-01 2.6492738723754883e-01</leafValues></_>
    <_>
      <internalNodes>
        0 -1 2388 644614058 615805906 -1462109612 -273647137 889607606
        -303741648 -39096452 -455214703</internalNodes>
      <leafValues>
        -5.8772009611129761e-01 2.8861778974533081e-01</leafValues></_>
    <_>
      <internalNodes>
        0 -1 64 -1879126656 247883444 -1052356291 -1091240470 999950432
        480171783 412503108 637401682</internalNodes>
      <leafValues>
        -8.0380558967590332e-01 2.0036837458610535e-01</leafValues></_></weakClassifiers></stage5>
</opencv_storage>
