<?xml version="1.0"?>
<opencv_storage>
<stage15>
  <maxWeakCount>7</maxWeakCount>
  <stageThreshold>-1.8762917518615723e+00</stageThreshold>
  <weakClassifiers>
    <_>
      <internalNodes>
        0 -1 5363 -536880129 -570448713 -544317985 -137247445 -153496069
        -811756309 -305157653 -3149825</internalNodes>
      <leafValues>
        -8.1508874893188477e-01 4.1666667908430099e-02</leafValues></_>
    <_>
      <internalNodes>
        0 -1 3233 238556018 1890886023 1924598172 -1108439092 566505460
        2077167754 216586831 1563701790</internalNodes>
      <leafValues>
        -8.1327092647552490e-01 -8.9718446135520935e-02</leafValues></_>
    <_>
      <internalNodes>
        0 -1 1829 1324818084 215406554 -591997063 -1476623398 433273796
        2147326256 2102621719 276570148</internalNodes>
      <leafValues>
        -7.8849196434020996e-01 1.3436922430992126e-01</leafValues></_>
    <_>
      <internalNodes>
        0 -1 8372 794570018 97186263 1293407212 -2030109706 2059031382
        -112373149 966490896 325343028</internalNodes>
      <leafValues>
        -9.0432995557785034e-01 1.4590264856815338e-01</leafValues></_>
    <_>
      <internalNodes>
        0 -1 8151 -1630008272 -305469202 1426362490 -296586787
        -1611727980 188983983 -610584220 624852512</internalNodes>
      <leafValues>
        -7.8558862209320068e-01 1.6688500344753265e-01</leafValues></_>
    <_>
      <internalNodes>
        0 -1 4539 1995831559 1574961143 805240694 -704757761 -1342249220
        -1611202698 2104786422 -550777185</internalNodes>
      <leafValues>
        -3.3678129315376282e-01 4.6069034934043884e-01</leafValues></_>
    <_>
      <internalNodes>
        0 -1 5736 -9982687 2130657130 -1879113859 409615991 -526338
        1073708661 -1073744663 -210501762</internalNodes>
      <leafValues>
        -3.5830768942832947e-01 4.6059662103652954e-01</leafValues></_></weakClassifiers></stage15>
</opencv_storage>
