<?xml version="1.0"?>
<opencv_storage>
<cascade>
  <stageType>BOOST</stageType>
  <featureType>LBP</featureType>
  <height>24</height>
  <width>24</width>
  <stageParams>
    <boostType>GAB</boostType>
    <minHitRate>9.9900001287460327e-01</minHitRate>
    <maxFalseAlarm>5.0000000000000000e-01</maxFalseAlarm>
    <weightTrimRate>9.4999999999999996e-01</weightTrimRate>
    <maxDepth>1</maxDepth>
    <maxWeakCount>100</maxWeakCount></stageParams>
  <featureParams>
    <maxCatCount>256</maxCatCount>
    <featSize>1</featSize></featureParams>
  <stageNum>10</stageNum>
  <stages>
    <!-- stage 0 -->
    <_>
      <maxWeakCount>7</maxWeakCount>
      <stageThreshold>-1.8387823104858398e+00</stageThreshold>
      <weakClassifiers>
        <_>
          <internalNodes>
            0 -1 25 -58277683 2093799673 1468653302 -4549137 -127057
            -36180550 -421855841 -152044801</internalNodes>
          <leafValues>
            -8.7065970897674561e-01 -3.9112904667854309e-01</leafValues></_>
        <_>
          <internalNodes>
            0 -1 58 -16778999 -1419022535 -841488466 -323728642
            -85033212 -1497640519 -539431119 -488185261</internalNodes>
          <leafValues>
            -6.7106825113296509e-01 1.3395333290100098e-01</leafValues></_>
        <_>
          <internalNodes>
            0 -1 2 -91517782 -1148749933 1505857528 1471894417 115294806
            -1073875609 -2065205364 1473744765</internalNodes>
          <leafValues>
            -6.2630063295364380e-01 3.1783667206764221e-01</leafValues></_>
        <_>
          <internalNodes>
            0 -1 22 -1493749955 738096867 1989801727 2117645819
            1536979280 -8653827 -352600240 -1745079532</internalNodes>
          <leafValues>
            -6.2791746854782104e-01 3.1881514191627502e-01</leafValues></_>
        <_>
          <internalNodes>
            0 -1 40 1846837284 983496654 465672152 818413291 495573545
            1592356427 -942507081 619540854</internalNodes>
          <leafValues>
            -7.9184347391128540e-01 2.8199902176856995e-01</leafValues></_>
        <_>
          <internalNodes>
            0 -1 63 -698623167 -321003525 -125861898 1258125262
            -611571932 -821223109 -1107559611 -1134511852</internalNodes>
          <leafValues>
            -6.0925078392028809e-01 3.3703285455703735e-01</leafValues></_>
        <_>
          <internalNodes>
            0 -1 35 1090510354 1142268310 -954624202 -1453197696
            -402258251 586926221 -1447207699 1949539255</internalNodes>
          <leafValues>
            -6.5384858846664429e-01 3.4027817845344543e-01</leafValues></_></weakClassifiers></_>
    <!-- stage 1 -->
    <_>
      <maxWeakCount>6</maxWeakCount>
      <stageThreshold>-1.8983751535415649e+00</stageThreshold>
      <weakClassifiers>
        <_>
          <internalNodes>
            0 -1 0 -272635141 -1148343398 -235467281 -337724929
            -1922442769 1777303611 135483528 -891566881</internalNodes>
          <leafValues>
            -8.7621247768402100e-01 -4.7716534137725830e-01</leafValues></_>
        <_>
          <internalNodes>
            0 -1 56 -137439481 -173087397 -677184194 -735692339
            2113694550 -739137206 1922259009 -101606947</internalNodes>
          <leafValues>
            -6.4285349845886230e-01 1.0270389169454575e-01</leafValues></_>
        <_>
          <internalNodes>
            0 -1 7 -1037158904 410058226 -318467867 132048257 2034103636
            512979276 -624067229 2000531188</internalNodes>
          <leafValues>
            -8.0628639459609985e-01 1.7968645691871643e-01</leafValues></_>
        <_>
          <internalNodes>
            0 -1 55 -1097488757 -1527392330 -1454131552 1792971736
            2139979335 -1331220369 -1434382029 -1024001036</internalNodes>
          <leafValues>
            -7.0123976469039917e-01 2.7125680446624756e-01</leafValues></_>
        <_>
          <internalNodes>
            0 -1 8 -126334462 -374951577 -2050224427 1137875706
            -1998803458 1053006266 1990817583 861342409</internalNodes>
          <leafValues>
            -6.5060162544250488e-01 2.5511226058006287e-01</leafValues></_>
        <_>
          <internalNodes>
            0 -1 13 -439013581 -1646899937 -241525268 -278657545
            -741813935 -507559293 543499072 -829210753</internalNodes>
          <leafValues>
            -4.9843901395797729e-01 4.0959659218788147e-01</leafValues></_></weakClassifiers></_>
    <!-- stage 2 -->
    <_>
      <maxWeakCount>6</maxWeakCount>
      <stageThreshold>-1.6736758947372437e+00</stageThreshold>
      <weakClassifiers>
        <_>
          <internalNodes>
            0 -1 16 -103035973 -574646625 -45640869 -2110913 182185726
            -1078212933 -1916797493 -67122453</internalNodes>
          <leafValues>
            -8.3716398477554321e-01 -2.1888412535190582e-01</leafValues></_>
        <_>
          <internalNodes>
            0 -1 9 1827310182 475574082 -1022435041 800039159 -672440363
            1397700832 -625049665 1811119807</internalNodes>
          <leafValues>
            -7.2009259462356567e-01 2.5632552802562714e-02</leafValues></_>
        <_>
          <internalNodes>
            0 -1 36 536305667 988427963 -1632665606 -424292234
            1173349367 2046780414 -480401452 -185290572</internalNodes>
          <leafValues>
            -5.8633458614349365e-01 2.6294875144958496e-01</leafValues></_>
        <_>
          <internalNodes>
            0 -1 23 1146848774 1356962397 1675082513 -1983098818
            1053899674 2098097082 1405834538 1035689323</internalNodes>
          <leafValues>
            -5.8353894948959351e-01 2.9244476556777954e-01</leafValues></_>
        <_>
          <internalNodes>
            0 -1 15 -1672283861 890013305 531071923 -1085417887
            215555301 439006411 525540076 -1973782018</internalNodes>
          <leafValues>
            -5.1510417461395264e-01 3.6952328681945801e-01</leafValues></_>
        <_>
          <internalNodes>
            0 -1 54 112881457 751605070 -686600084 -285546729
            -1288999833 -92051210 672315253 558217844</internalNodes>
          <leafValues>
            -7.7498859167098999e-01 2.4683953821659088e-01</leafValues></_></weakClassifiers></_>
    <!-- stage 3 -->
    <_>
      <maxWeakCount>7</maxWeakCount>
      <stageThreshold>-1.4059638977050781e+00</stageThreshold>
      <weakClassifiers>
        <_>
          <internalNodes>
            0 -1 34 -1 -549594925 1930270681 -1050945 -1311301 -75474433
            -618399269 -67109889</internalNodes>
          <leafValues>
            -8.1878948211669922e-01 4.6728972345590591e-02</leafValues></_>
        <_>
          <internalNodes>
            0 -1 21 -824293850 2121165338 -155219046 -63282486
            -1748284571 -696292427 -663849754 -151066957</internalNodes>
          <leafValues>
            -6.9367355108261108e-01 4.1952874511480331e-02</leafValues></_>
        <_>
          <internalNodes>
            0 -1 17 1337392672 385803189 324448685 -1393842218
            1876506607 1663170612 -911007108 556776063</internalNodes>
          <leafValues>
            -6.7872172594070435e-01 2.2693508863449097e-01</leafValues></_>
        <_>
          <internalNodes>
            0 -1 59 1811644196 784249215 -36439371 -1397818434
            -678239680 1641934126 -269357296 1834941552</internalNodes>
          <leafValues>
            -7.7103966474533081e-01 2.1656475961208344e-01</leafValues></_>
        <_>
          <internalNodes>
            0 -1 41 -1410996736 93893103 -331143682 -226781317 651908897
            1603140063 -346917568 907522183</internalNodes>
          <leafValues>
            -6.9242578744888306e-01 2.5217363238334656e-01</leafValues></_>
        <_>
          <internalNodes>
            0 -1 27 1751854652 1851440031 -697003906 1951432853
            1861906277 1505675291 1792166140 -329220314</internalNodes>
          <leafValues>
            -6.5326362848281860e-01 2.6784515380859375e-01</leafValues></_>
        <_>
          <internalNodes>
            0 -1 10 -383893006 450324624 -1936029779 1234764111
            -238855476 1401618603 -1111188941 -830522966</internalNodes>
          <leafValues>
            -5.2229499816894531e-01 3.5620561242103577e-01</leafValues></_></weakClassifiers></_>
    <!-- stage 4 -->
    <_>
      <maxWeakCount>6</maxWeakCount>
      <stageThreshold>-1.9474945068359375e+00</stageThreshold>
      <weakClassifiers>
        <_>
          <internalNodes>
            0 -1 46 -8389637 -537986963 -636890321 -570471691 1217395451
            -1438989816 -548849153 -167782437</internalNodes>
          <leafValues>
            -8.4200078248977661e-01 -2.8113877773284912e-01</leafValues></_>
        <_>
          <internalNodes>
            0 -1 19 -84283386 450690687 -1201799151 -1920359236
            -1081644369 -826648026 1068968888 1529968702</internalNodes>
          <leafValues>
            -7.1843332052230835e-01 1.2016750872135162e-02</leafValues></_>
        <_>
          <internalNodes>
            0 -1 30 -745620446 259242668 1378208128 -37151786 1304011992
            1796919161 1576687529 167123766</internalNodes>
          <leafValues>
            -6.1278188228607178e-01 2.3141302168369293e-01</leafValues></_>
        <_>
          <internalNodes>
            0 -1 32 -449913476 529628540 -490136843 -560579857
            2085664989 932582052 1866946998 -1212344408</internalNodes>
          <leafValues>
            -5.0328618288040161e-01 3.2380163669586182e-01</leafValues></_>
        <_>
          <internalNodes>
            0 -1 47 1407542848 115280781 -790892217 1859006907
            -176199228 989842569 -72912192 -1507528780</internalNodes>
          <leafValues>
            -6.3739711046218872e-01 2.8588294982910156e-01</leafValues></_>
        <_>
          <internalNodes>
            0 -1 53 -68246213 -617218575 -1090552010 1035919159 -8523809
            -167804931 1996488562 -445253251</internalNodes>
          <leafValues>
            -4.0107017755508423e-01 4.5548427104949951e-01</leafValues></_></weakClassifiers></_>
    <!-- stage 5 -->
    <_>
      <maxWeakCount>6</maxWeakCount>
      <stageThreshold>-1.7199686765670776e+00</stageThreshold>
      <weakClassifiers>
        <_>
          <internalNodes>
            0 -1 1 -268959753 -70061961 -1953371427 -11562146 -861106177
            -1113883751 -17068609 -3681</internalNodes>
          <leafValues>
            -8.3522063493728638e-01 -2.5523012876510620e-01</leafValues></_>
        <_>
          <internalNodes>
            0 -1 6 1225673648 1021075098 -50903296 -1225796721
            1665059753 534457931 512053867 1509412862</internalNodes>
          <leafValues>
            -7.4152266979217529e-01 -2.2163858637213707e-02</leafValues></_>
        <_>
          <internalNodes>
            0 -1 52 805184044 -1350735918 -1225198402 -1360855082
            -12718783 120577595 -1142004236 108023029</internalNodes>
          <leafValues>
            -9.0274620056152344e-01 1.2615041434764862e-01</leafValues></_>
        <_>
          <internalNodes>
            0 -1 5 922976388 -1242413166 -1308234795 1936683346
            1191088124 -1903771368 -100071046 2120824446</internalNodes>
          <leafValues>
            -6.0138291120529175e-01 2.6492738723754883e-01</leafValues></_>
        <_>
          <internalNodes>
            0 -1 33 644614058 615805906 -1462109612 -273647137 889607606
            -303741648 -39096452 -455214703</internalNodes>
          <leafValues>
            -5.8772009611129761e-01 2.8861778974533081e-01</leafValues></_>
        <_>
          <internalNodes>
            0 -1 4 -1879126656 247883444 -1052356291 -1091240470
            999950432 480171783 412503108 637401682</internalNodes>
          <leafValues>
            -8.0380558967590332e-01 2.0036837458610535e-01</leafValues></_></weakClassifiers></_>
    <!-- stage 6 -->
    <_>
      <maxWeakCount>7</maxWeakCount>
      <stageThreshold>-1.7402071952819824e+00</stageThreshold>
      <weakClassifiers>
        <_>
          <internalNodes>
            0 -1 37 -606085121 -604640290 -644966915 -41196837
            -957363297 -1304441112 -196085777 -8518</internalNodes>
          <leafValues>
            -8.2562547922134399e-01 -1.3580246269702911e-01</leafValues></_>
        <_>
          <internalNodes>
            0 -1 57 -990072907 -1745890079 -104872458 -109391107
            1943591908 -949245763 -1092125763 -1885341289</internalNodes>
          <leafValues>
            -5.5665487051010132e-01 1.4946997165679932e-01</leafValues></_>
        <_>
          <internalNodes>
            0 -1 29 -1067351672 -1689021570 -246321512 857528495
            -1946600770 -1127889226 1064286735 926361469</internalNodes>
          <leafValues>
            -5.6706261634826660e-01 2.4936830997467041e-01</leafValues></_>
        <_>
          <internalNodes>
            0 -1 11 -1385967878 1048205172 -351101697 800382554
            1959688406 -1132740201 -276760554 -76402345</internalNodes>
          <leafValues>
            -5.0164222717285156e-01 3.1775218248367310e-01</leafValues></_>
        <_>
          <internalNodes>
            0 -1 48 -1344344208 -2051918916 1142057749 -1198558372
            425943938 982182083 413081940 204846564</internalNodes>
          <leafValues>
            -7.4301314353942871e-01 2.5645342469215393e-01</leafValues></_>
        <_>
          <internalNodes>
            0 -1 18 1234330652 -619701506 1661550399 2101253002
            -53637919 -1690131794 526056040 1587754802</internalNodes>
          <leafValues>
            -6.0973423719406128e-01 2.6255905628204346e-01</leafValues></_>
        <_>
          <internalNodes>
            0 -1 44 -447108468 1000299226 1435717927 1474177493
            512723934 153981323 -893207624 -165516570</internalNodes>
          <leafValues>
            -4.6146047115325928e-01 3.7351432442665100e-01</leafValues></_></weakClassifiers></_>
    <!-- stage 7 -->
    <_>
      <maxWeakCount>7</maxWeakCount>
      <stageThreshold>-1.4942523241043091e+00</stageThreshold>
      <weakClassifiers>
        <_>
          <internalNodes>
            0 -1 45 -545259529 -642525235 2005112989 -608309 -378102865
            -1194792055 -74732613 -3147076</internalNodes>
          <leafValues>
            -8.3037781715393066e-01 -2.2330096364021301e-01</leafValues></_>
        <_>
          <internalNodes>
            0 -1 14 -1594077323 -489729508 -271922178 2056945070
            2079944275 872003724 -1145670412 -2077853369</internalNodes>
          <leafValues>
            -7.5807040929794312e-01 -4.7401789575815201e-02</leafValues></_>
        <_>
          <internalNodes>
            0 -1 20 1428041868 915189562 1544987098 -1081247134
            1960407289 -332414419 -43348110 1178812858</internalNodes>
          <leafValues>
            -6.6967743635177612e-01 1.9080670177936554e-01</leafValues></_>
        <_>
          <internalNodes>
            0 -1 51 -307859664 -2092764850 -16332076 1055823805
            1850239792 1355662219 -236295296 1408492988</internalNodes>
          <leafValues>
            -6.8007576465606689e-01 2.4773257970809937e-01</leafValues></_>
        <_>
          <internalNodes>
            0 -1 12 -597713153 -219714242 349916764 -268901935
            -549775871 1126345394 -22582365 -290902625</internalNodes>
          <leafValues>
            -4.1564625501632690e-01 3.9595872163772583e-01</leafValues></_>
        <_>
          <internalNodes>
            0 -1 61 1055656849 -1002253397 -1052657215 911930234
            -880558511 -1602116985 -1287488660 753427684</internalNodes>
          <leafValues>
            -7.5923085212707520e-01 2.3522950708866119e-01</leafValues></_>
        <_>
          <internalNodes>
            0 -1 26 2094415088 661433705 538560598 -1325968210
            1862979381 -929480258 430186941 1524452066</internalNodes>
          <leafValues>
            -6.7454874515533447e-01 2.3606842756271362e-01</leafValues></_></weakClassifiers></_>
    <!-- stage 8 -->
    <_>
      <maxWeakCount>6</maxWeakCount>
      <stageThreshold>-1.4618372917175293e+00</stageThreshold>
      <weakClassifiers>
        <_>
          <internalNodes>
            0 -1 24 -1 -8526369 -408718981 -6587682 -538510353
            -641816434 -50861137 -302017537</internalNodes>
          <leafValues>
            -8.1933557987213135e-01 -4.1322313249111176e-02</leafValues></_>
        <_>
          <internalNodes>
            0 -1 31 1541391040 2096978364 -830797027 -406074245
            952301023 728866450 -1249154390 -1671044513</internalNodes>
          <leafValues>
            -6.1281937360763550e-01 9.8997361958026886e-02</leafValues></_>
        <_>
          <internalNodes>
            0 -1 60 -1084765181 1000577788 -575043130 -1106773028
            -1227638204 439700968 -35688236 388780891</internalNodes>
          <leafValues>
            -6.2186884880065918e-01 2.1857044100761414e-01</leafValues></_>
        <_>
          <internalNodes>
            0 -1 43 523583093 1657351051 -2054564418 602733214 835796823
            -557327767 -571851543 -1821343753</internalNodes>
          <leafValues>
            -5.5226093530654907e-01 2.8454509377479553e-01</leafValues></_>
        <_>
          <internalNodes>
            0 -1 39 -1692658124 916109379 -209073675 1738971514
            608982842 -1551219839 1596652384 1635207799</internalNodes>
          <leafValues>
            -6.3349902629852295e-01 2.9250726103782654e-01</leafValues></_>
        <_>
          <internalNodes>
            0 -1 62 1879015715 1809179111 -1291812626 -1504164989
            -643859615 -222762310 -71819724 -114945243</internalNodes>
          <leafValues>
            -6.1111557483673096e-01 2.6479989290237427e-01</leafValues></_></weakClassifiers></_>
    <!-- stage 9 -->
    <_>
      <maxWeakCount>6</maxWeakCount>
      <stageThreshold>-1.7172571420669556e+00</stageThreshold>
      <weakClassifiers>
        <_>
          <internalNodes>
            0 -1 49 -1244670185 -1746974007 -765918754 -3161723
            -1621935617 -938755441 -447042561 -320864657</internalNodes>
          <leafValues>
            -8.5457658767700195e-01 -4.3722942471504211e-01</leafValues></_>
        <_>
          <internalNodes>
            0 -1 28 -1433970377 -1143774052 -631817749 -1084312791
            1538021143 -48357185 992472879 -289270798</internalNodes>
          <leafValues>
            -6.2504690885543823e-01 6.8737044930458069e-02</leafValues></_>
        <_>
          <internalNodes>
            0 -1 42 1291648830 212660672 -1148004526 -1377834661
            2078210837 1304218803 -2064912826 83141610</internalNodes>
          <leafValues>
            -7.1458023786544800e-01 1.8384699523448944e-01</leafValues></_>
        <_>
          <internalNodes>
            0 -1 38 1313861194 -1585316422 -448176248 649991085
            2139835128 1673221291 -964539680 -965247053</internalNodes>
          <leafValues>
            -5.6041043996810913e-01 2.9575979709625244e-01</leafValues></_>
        <_>
          <internalNodes>
            0 -1 50 1056699944 1087083446 -1701978182 -1160744577
            -692647119 320546123 -657564807 1878517746</internalNodes>
          <leafValues>
            -6.2208276987075806e-01 2.4627284705638885e-01</leafValues></_>
        <_>
          <internalNodes>
            0 -1 3 -544609562 -1215176731 -1726898797 -94612815
            151218835 779962433 2114934527 309459259</internalNodes>
          <leafValues>
            -5.1250487565994263e-01 3.2261037826538086e-01</leafValues></_></weakClassifiers></_></stages>
  <features>
    <_>
      <rect>
        0 0 1 2</rect></_>
    <_>
      <rect>
        0 0 2 2</rect></_>
    <_>
      <rect>
        0 0 2 3</rect></_>
    <_>
      <rect>
        0 0 3 2</rect></_>
    <_>
      <rect>
        0 1 1 1</rect></_>
    <_>
      <rect>
        0 1 2 5</rect></_>
    <_>
      <rect>
        0 2 2 2</rect></_>
    <_>
      <rect>
        0 2 5 6</rect></_>
    <_>
      <rect>
        0 3 2 2</rect></_>
    <_>
      <rect>
        0 6 2 2</rect></_>
    <_>
      <rect>
        0 7 3 4</rect></_>
    <_>
      <rect>
        0 8 2 2</rect></_>
    <_>
      <rect>
        0 10 2 2</rect></_>
    <_>
      <rect>
        0 12 1 2</rect></_>
    <_>
      <rect>
        0 15 1 1</rect></_>
    <_>
      <rect>
        1 0 1 2</rect></_>
    <_>
      <rect>
        1 1 1 3</rect></_>
    <_>
      <rect>
        1 3 6 7</rect></_>
    <_>
      <rect>
        1 4 1 2</rect></_>
    <_>
      <rect>
        1 4 2 2</rect></_>
    <_>
      <rect>
        1 4 2 3</rect></_>
    <_>
      <rect>
        1 7 1 1</rect></_>
    <_>
      <rect>
        1 16 1 1</rect></_>
    <_>
      <rect>
        2 3 2 4</rect></_>
    <_>
      <rect>
        2 4 3 4</rect></_>
    <_>
      <rect>
        2 5 1 1</rect></_>
    <_>
      <rect>
        2 6 3 3</rect></_>
    <_>
      <rect>
        2 11 1 1</rect></_>
    <_>
      <rect>
        3 0 1 1</rect></_>
    <_>
      <rect>
        3 3 1 2</rect></_>
    <_>
      <rect>
        3 4 2 3</rect></_>
    <_>
      <rect>
        3 6 4 2</rect></_>
    <_>
      <rect>
        3 7 2 3</rect></_>
    <_>
      <rect>
        3 8 1 1</rect></_>
    <_>
      <rect>
        3 9 3 3</rect></_>
    <_>
      <rect>
        4 0 6 6</rect></_>
    <_>
      <rect>
        4 1 1 1</rect></_>
    <_>
      <rect>
        4 4 2 3</rect></_>
    <_>
      <rect>
        4 6 1 1</rect></_>
    <_>
      <rect>
        5 0 4 5</rect></_>
    <_>
      <rect>
        5 2 2 3</rect></_>
    <_>
      <rect>
        5 3 1 1</rect></_>
    <_>
      <rect>
        5 12 3 2</rect></_>
    <_>
      <rect>
        5 19 1 1</rect></_>
    <_>
      <rect>
        6 0 1 1</rect></_>
    <_>
      <rect>
        6 5 4 3</rect></_>
    <_>
      <rect>
        7 6 2 4</rect></_>
    <_>
      <rect>
        8 0 1 1</rect></_>
    <_>
      <rect>
        8 8 2 4</rect></_>
    <_>
      <rect>
        8 12 4 2</rect></_>
    <_>
      <rect>
        9 1 2 3</rect></_>
    <_>
      <rect>
        9 5 2 3</rect></_>
    <_>
      <rect>
        9 21 1 1</rect></_>
    <_>
      <rect>
        10 0 3 5</rect></_>
    <_>
      <rect>
        10 11 1 1</rect></_>
    <_>
      <rect>
        12 2 4 2</rect></_>
    <_>
      <rect>
        12 7 4 5</rect></_>
    <_>
      <rect>
        13 17 2 2</rect></_>
    <_>
      <rect>
        16 4 1 2</rect></_>
    <_>
      <rect>
        16 9 1 1</rect></_>
    <_>
      <rect>
        17 15 1 1</rect></_>
    <_>
      <rect>
        18 2 2 6</rect></_>
    <_>
      <rect>
        18 11 2 2</rect></_>
    <_>
      <rect>
        20 21 1 1</rect></_></features></cascade>
</opencv_storage>
