<?xml version="1.0"?>
<opencv_storage>
<stage4>
  <maxWeakCount>6</maxWeakCount>
  <stageThreshold>-1.9474945068359375e+00</stageThreshold>
  <weakClassifiers>
    <_>
      <internalNodes>
        0 -1 4538 -8389637 -537986963 -636890321 -570471691 1217395451
        -1438989816 -548849153 -167782437</internalNodes>
      <leafValues>
        -8.4200078248977661e-01 -2.8113877773284912e-01</leafValues></_>
    <_>
      <internalNodes>
        0 -1 946 -84283386 450690687 -1201799151 -1920359236 -1081644369
        -826648026 1068968888 1529968702</internalNodes>
      <leafValues>
        -7.1843332052230835e-01 1.2016750872135162e-02</leafValues></_>
    <_>
      <internalNodes>
        0 -1 2235 -745620446 259242668 1378208128 -37151786 1304011992
        1796919161 1576687529 167123766</internalNodes>
      <leafValues>
        -6.1278188228607178e-01 2.3141302168369293e-01</leafValues></_>
    <_>
      <internalNodes>
        0 -1 2360 -449913476 529628540 -490136843 -560579857 2085664989
        932582052 1866946998 -1212344408</internalNodes>
      <leafValues>
        -5.0328618288040161e-01 3.2380163669586182e-01</leafValues></_>
    <_>
      <internalNodes>
        0 -1 4784 1407542848 115280781 -790892217 1859006907 -176199228
        989842569 -72912192 -1507528780</internalNodes>
      <leafValues>
        -6.3739711046218872e-01 2.8588294982910156e-01</leafValues></_>
    <_>
      <internalNodes>
        0 -1 5724 -68246213 -617218575 -1090552010 1035919159 -8523809
        -167804931 1996488562 -445253251</internalNodes>
      <leafValues>
        -4.0107017755508423e-01 4.5548427104949951e-01</leafValues></_></weakClassifiers></stage4>
</opencv_storage>
