<?xml version="1.0"?>
<opencv_storage>
<stage2>
  <maxWeakCount>6</maxWeakCount>
  <stageThreshold>-1.6736758947372437e+00</stageThreshold>
  <weakClassifiers>
    <_>
      <internalNodes>
        0 -1 794 -103035973 -574646625 -45640869 -2110913 182185726
        -1078212933 -1916797493 -67122453</internalNodes>
      <leafValues>
        -8.3716398477554321e-01 -2.1888412535190582e-01</leafValues></_>
    <_>
      <internalNodes>
        0 -1 335 1827310182 475574082 -1022435041 800039159 -672440363
        1397700832 -625049665 1811119807</internalNodes>
      <leafValues>
        -7.2009259462356567e-01 2.5632552802562714e-02</leafValues></_>
    <_>
      <internalNodes>
        0 -1 2716 536305667 988427963 -1632665606 -424292234 1173349367
        2046780414 -480401452 -185290572</internalNodes>
      <leafValues>
        -5.8633458614349365e-01 2.6294875144958496e-01</leafValues></_>
    <_>
      <internalNodes>
        0 -1 1544 1146848774 1356962397 1675082513 -1983098818
        1053899674 2098097082 1405834538 1035689323</internalNodes>
      <leafValues>
        -5.8353894948959351e-01 2.9244476556777954e-01</leafValues></_>
    <_>
      <internalNodes>
        0 -1 737 -1672283861 890013305 531071923 -1085417887 215555301
        439006411 525540076 -1973782018</internalNodes>
      <leafValues>
        -5.1510417461395264e-01 3.6952328681945801e-01</leafValues></_>
    <_>
      <internalNodes>
        0 -1 5968 112881457 751605070 -686600084 -285546729 -1288999833
        -92051210 672315253 558217844</internalNodes>
      <leafValues>
        -7.7498859167098999e-01 2.4683953821659088e-01</leafValues></_></weakClassifiers></stage2>
</opencv_storage>
