<?xml version="1.0"?>
<opencv_storage>
<stage9>
  <maxWeakCount>6</maxWeakCount>
  <stageThreshold>-1.7172571420669556e+00</stageThreshold>
  <weakClassifiers>
    <_>
      <internalNodes>
        0 -1 5147 -1244670185 -1746974007 -765918754 -3161723
        -1621935617 -938755441 -447042561 -320864657</internalNodes>
      <leafValues>
        -8.5457658767700195e-01 -4.3722942471504211e-01</leafValues></_>
    <_>
      <internalNodes>
        0 -1 2024 -1433970377 -1143774052 -631817749 -1084312791
        1538021143 -48357185 992472879 -289270798</internalNodes>
      <leafValues>
        -6.2504690885543823e-01 6.8737044930458069e-02</leafValues></_>
    <_>
      <internalNodes>
        0 -1 3649 1291648830 212660672 -1148004526 -1377834661
        2078210837 1304218803 -2064912826 83141610</internalNodes>
      <leafValues>
        -7.1458023786544800e-01 1.8384699523448944e-01</leafValues></_>
    <_>
      <internalNodes>
        0 -1 2914 1313861194 -1585316422 -448176248 649991085 2139835128
        1673221291 -964539680 -965247053</internalNodes>
      <leafValues>
        -5.6041043996810913e-01 2.9575979709625244e-01</leafValues></_>
    <_>
      <internalNodes>
        0 -1 5293 1056699944 1087083446 -1701978182 -1160744577
        -692647119 320546123 -657564807 1878517746</internalNodes>
      <leafValues>
        -6.2208276987075806e-01 2.4627284705638885e-01</leafValues></_>
    <_>
      <internalNodes>
        0 -1 17 -544609562 -1215176731 -1726898797 -94612815 151218835
        779962433 2114934527 309459259</internalNodes>
      <leafValues>
        -5.1250487565994263e-01 3.2261037826538086e-01</leafValues></_></weakClassifiers></stage9>
</opencv_storage>
