<?xml version="1.0"?>
<opencv_storage>
<stage10>
  <maxWeakCount>6</maxWeakCount>
  <stageThreshold>-1.6910517215728760e+00</stageThreshold>
  <weakClassifiers>
    <_>
      <internalNodes>
        0 -1 3983 -136053249 -24576033 -2069904727 -136356649 -829555044
        -526976801 -1444756485 -67115813</internalNodes>
      <leafValues>
        -8.3809524774551392e-01 -3.1428572535514832e-01</leafValues></_>
    <_>
      <internalNodes>
        0 -1 4734 -1726497853 1941153259 1838238134 -1670588048
        -1599407113 -1918760705 -1316259875 -52985878</internalNodes>
      <leafValues>
        -5.5536687374114990e-01 1.3538080453872681e-01</leafValues></_>
    <_>
      <internalNodes>
        0 -1 5774 -1172215394 1044625606 -1312663081 433510814
        -1176766637 2079211614 -43009308 -1268204536</internalNodes>
      <leafValues>
        -5.7998675107955933e-01 2.4241364002227783e-01</leafValues></_>
    <_>
      <internalNodes>
        0 -1 3569 292437814 2129406580 1657540692 1062745082 2131589947
        -353043567 1773003633 1013284549</internalNodes>
      <leafValues>
        -6.7624974250793457e-01 2.2373858094215393e-01</leafValues></_>
    <_>
      <internalNodes>
        0 -1 5199 -1427473118 -823275116 1161109748 -1965785092
        651067235 -877079622 -1696254348 -1397215019</internalNodes>
      <leafValues>
        -7.0940124988555908e-01 2.4581646919250488e-01</leafValues></_>
    <_>
      <internalNodes>
        0 -1 995 315795096 903623182 -1426405629 1827913878 1609563024
        -611680030 743103024 322243547</internalNodes>
      <leafValues>
        -7.1096748113632202e-01 2.0898519456386566e-01</leafValues></_></weakClassifiers></stage10>
</opencv_storage>
