<?xml version="1.0"?>
<opencv_storage>
<stage12>
  <maxWeakCount>8</maxWeakCount>
  <stageThreshold>-1.6743470430374146e+00</stageThreshold>
  <weakClassifiers>
    <_>
      <internalNodes>
        0 -1 889 -61604353 -3422977 -1722560097 -604021769 -1450184449
        -346577749 -2015524101 -2117</internalNodes>
      <leafValues>
        -8.1569206714630127e-01 4.0816325694322586e-02</leafValues></_>
    <_>
      <internalNodes>
        0 -1 7604 -1129619711 -1157935633 -1385853864 -823463465
        910160868 1004761522 -314119306 1709522764</internalNodes>
      <leafValues>
        -7.4482131004333496e-01 -4.3045245110988617e-02</leafValues></_>
    <_>
      <internalNodes>
        0 -1 2279 133778066 1060428761 2079940853 -274760579 -900911568
        2073231393 2011705135 934651108</internalNodes>
      <leafValues>
        -6.2224268913269043e-01 1.9904547929763794e-01</leafValues></_>
    <_>
      <internalNodes>
        0 -1 507 -474288496 1861633932 386527531 -1648253034 1659508420
        -127750629 1401366888 129576255</internalNodes>
      <leafValues>
        -5.3437060117721558e-01 3.1586614251136780e-01</leafValues></_>
    <_>
      <internalNodes>
        0 -1 35 -1697207388 2055440830 2144399777 -895767298 1641756259
        -1686775406 -1123534511 1627340196</internalNodes>
      <leafValues>
        -6.4008402824401855e-01 2.4297742545604706e-01</leafValues></_>
    <_>
      <internalNodes>
        0 -1 5075 914334728 -1128222235 1225006052 1040173778 -427076703
        872275130 315225053 1444697365</internalNodes>
      <leafValues>
        -5.9115481376647949e-01 2.5946786999702454e-01</leafValues></_>
    <_>
      <internalNodes>
        0 -1 2249 1053846233 -1127295086 1133020630 -1595936933
        1501618259 -912603514 491711711 759675606</internalNodes>
      <leafValues>
        -5.0594365596771240e-01 3.3159705996513367e-01</leafValues></_>
    <_>
      <internalNodes>
        0 -1 6218 -539857686 -1626527289 1300252660 800526762 1250546129
        -2087841604 -225858772 -704969207</internalNodes>
      <leafValues>
        -4.6370428800582886e-01 3.8240042328834534e-01</leafValues></_></weakClassifiers></stage12>
</opencv_storage>
