<?xml version="1.0"?>
<opencv_storage>
<stage1>
  <maxWeakCount>6</maxWeakCount>
  <stageThreshold>-1.8983751535415649e+00</stageThreshold>
  <weakClassifiers>
    <_>
      <internalNodes>
        0 -1 1 -272635141 -1148343398 -235467281 -337724929 -1922442769
        1777303611 135483528 -891566881</internalNodes>
      <leafValues>
        -8.7621247768402100e-01 -4.7716534137725830e-01</leafValues></_>
    <_>
      <internalNodes>
        0 -1 6647 -137439481 -173087397 -677184194 -735692339 2113694550
        -739137206 1922259009 -101606947</internalNodes>
      <leafValues>
        -6.4285349845886230e-01 1.0270389169454575e-01</leafValues></_>
    <_>
      <internalNodes>
        0 -1 153 -1037158904 410058226 -318467867 132048257 2034103636
        512979276 -624067229 2000531188</internalNodes>
      <leafValues>
        -8.0628639459609985e-01 1.7968645691871643e-01</leafValues></_>
    <_>
      <internalNodes>
        0 -1 6522 -1097488757 -1527392330 -1454131552 1792971736
        2139979335 -1331220369 -1434382029 -1024001036</internalNodes>
      <leafValues>
        -7.0123976469039917e-01 2.7125680446624756e-01</leafValues></_>
    <_>
      <internalNodes>
        0 -1 184 -126334462 -374951577 -2050224427 1137875706
        -1998803458 1053006266 1990817583 861342409</internalNodes>
      <leafValues>
        -6.5060162544250488e-01 2.5511226058006287e-01</leafValues></_>
    <_>
      <internalNodes>
        0 -1 561 -439013581 -1646899937 -241525268 -278657545 -741813935
        -507559293 543499072 -829210753</internalNodes>
      <leafValues>
        -4.9843901395797729e-01 4.0959659218788147e-01</leafValues></_></weakClassifiers></stage1>
</opencv_storage>
