<?xml version="1.0"?>
<opencv_storage>
<stage18>
  <maxWeakCount>6</maxWeakCount>
  <stageThreshold>-1.4498877525329590e+00</stageThreshold>
  <weakClassifiers>
    <_>
      <internalNodes>
        0 -1 2146 -1 -14885 -35335489 -3159857 -219157505 -87104264
        -339485969 -5137</internalNodes>
      <leafValues>
        -8.0514305830001831e-01 5.8974361419677734e-01</leafValues></_>
    <_>
      <internalNodes>
        0 -1 6783 -816067136 -2084644874 -578763291 -1433580906
        -231606542 -2967156 -102765574 22539495</internalNodes>
      <leafValues>
        -6.2976765632629395e-01 3.8902729749679565e-02</leafValues></_>
    <_>
      <internalNodes>
        0 -1 939 280627936 1487587066 829064456 -1908594193 450085776
        1517234282 -337690375 -1833089711</internalNodes>
      <leafValues>
        -6.0643380880355835e-01 2.1407850086688995e-01</leafValues></_>
    <_>
      <internalNodes>
        0 -1 4860 -1485148636 -1443440753 760534629 1020679310
        2074769268 26261787 701235193 -999251982</internalNodes>
      <leafValues>
        -6.1988663673400879e-01 2.3297514021396637e-01</leafValues></_>
    <_>
      <internalNodes>
        0 -1 2950 -339995930 -1357474294 -1395173066 1238487198
        1523409124 503376980 -53600302 480670567</internalNodes>
      <leafValues>
        -6.0846698284149170e-01 2.7630114555358887e-01</leafValues></_>
    <_>
      <internalNodes>
        0 -1 849 -1007036066 -26033733 -18525944 -1210616701 421381042
        -1107324707 1924075341 670526172</internalNodes>
      <leafValues>
        -4.9999046325683594e-01 3.3062776923179626e-01</leafValues></_></weakClassifiers></stage18>
</opencv_storage>
